"0","titanic_fitted
"
"1","n="
"1"," "
"1","570"
"1"," "
"1","

"
"1","node), split, n, loss, yval, (yprob)
"
"1","      * denotes terminal node

"
"1","1) root 570 229 No (0.5982456 0.4017544)  "
"1","
"
"1","  2) survived< 0.5 341   0 No (1.0000000 0.0000000) *"
"1","
"
"1","  3) survived>=0.5 229   0 Yes (0.0000000 1.0000000) *"
"1","
"
